417 10
</s> 0.040027 0.044194 -0.038303 -0.032780 0.013666 0.030211 0.009409 0.002113 -0.036035 0.022185 
the -0.526765 -0.287176 -0.265987 -0.032766 0.020832 1.214088 0.931197 0.890625 0.691572 -0.478462 
, -0.432164 -0.314754 -0.280430 0.028888 0.085084 1.163263 0.826121 0.836188 0.606709 -0.445872 
in -0.916713 -0.592472 -0.471965 -0.056145 0.063212 2.377680 1.753182 1.617886 1.244963 -0.929660 
of -0.465346 -0.305326 -0.184257 -0.014871 0.018318 1.058405 0.768251 0.780574 0.591332 -0.423744 
. -1.275328 -0.801334 -0.664633 -0.043113 0.166844 3.116262 2.342208 2.209712 1.699493 -1.265322 
university -1.010114 -0.663667 -0.572530 -0.024870 0.107701 2.649452 1.961175 1.810582 1.401348 -1.029253 
to -0.257874 -0.146743 -0.191083 -0.031418 0.026922 0.780788 0.519066 0.564688 0.436523 -0.319200 
and -0.603093 -0.382875 -0.264795 0.006469 0.052323 1.526573 1.137221 1.058305 0.849559 -0.622064 
tsinghua -0.364583 -0.236094 -0.214303 0.011888 0.053640 0.891335 0.628672 0.634228 0.502161 -0.353289 
a 0.022797 -0.049525 0.043149 0.004799 -0.018311 -0.020833 -0.007480 -0.029350 -0.043695 -0.028371 
school -0.692535 -0.471293 -0.420974 -0.006278 0.065339 1.923684 1.354510 1.265325 1.029472 -0.750339 
college -0.192209 -0.086589 -0.069155 -0.009596 0.035346 0.362144 0.302337 0.298560 0.185525 -0.158023 
its -0.959688 -0.608371 -0.531415 -0.090675 0.112085 2.427032 1.779111 1.658056 1.244233 -1.013790 
with -0.770422 -0.457251 -0.373391 -0.025026 0.051872 1.898994 1.331937 1.277656 0.979154 -0.691750 
as -0.410392 -0.222822 -0.214186 0.015432 0.038642 0.997488 0.670107 0.642208 0.474177 -0.420566 
national -0.228748 -0.149847 -0.075119 -0.030836 0.053712 0.529509 0.373661 0.374773 0.288878 -0.170378 
was -0.035507 -0.034331 -0.036566 -0.001320 0.041306 -0.027367 -0.030603 -0.041963 0.033060 -0.041789 
on -0.241972 -0.122557 -0.172584 -0.055334 0.043122 0.636308 0.482359 0.440256 0.354761 -0.270787 
chinese -0.047744 0.033377 -0.033983 0.015249 0.007558 0.045695 0.009378 0.022468 -0.001077 -0.022762 
students -0.044336 -0.032600 0.034854 0.010054 -0.023627 -0.015919 0.024948 -0.035326 -0.023132 0.047343 
for 0.042484 -0.039592 0.008710 -0.022499 0.001523 0.030067 0.048462 0.019865 0.041129 0.031465 
sciences -0.323027 -0.151792 -0.145388 0.035710 0.021980 0.864216 0.641617 0.558981 0.389035 -0.275903 
's 0.008969 -0.020787 -0.007178 -0.007356 -0.038535 -0.014311 -0.004437 -0.049269 -0.035159 -0.012035 
china -0.447215 -0.253927 -0.229741 -0.020818 0.081174 1.132035 0.823611 0.819759 0.589803 -0.462039 
degree -0.004135 -0.027275 -0.029999 0.002025 0.043381 -0.013670 -0.000208 -0.041353 0.037088 -0.015202 
united 0.029681 -0.024086 -0.008951 0.000941 0.036230 -0.000862 0.044327 -0.007426 0.021002 -0.001369 
states -0.039017 0.042506 0.010559 -0.030293 0.030081 -0.041447 -0.043536 0.032677 -0.034317 -0.026476 
after -0.033758 -0.006656 -0.027575 0.037862 0.059840 0.209906 0.140684 0.074452 0.112391 -0.113097 
by -0.012863 0.015120 0.009808 -0.015248 0.029379 -0.046080 -0.014111 -0.013118 -0.016562 0.030708 
from -0.047308 0.027782 0.013376 0.028297 0.036780 0.002763 0.008255 -0.045500 -0.010284 0.032140 
schools -0.904445 -0.505385 -0.487832 -0.076007 0.074285 2.307128 1.692959 1.546099 1.267433 -0.950976 
peking -0.062850 0.017596 -0.012197 -0.023031 -0.004126 0.007813 0.050935 0.062968 0.060111 -0.057264 
engineering -0.249519 -0.142296 -0.132847 0.029978 0.048839 0.628356 0.394910 0.424607 0.354886 -0.252199 
law -0.261945 -0.169257 -0.203132 0.029969 0.080171 0.717979 0.543552 0.505193 0.424477 -0.338041 
international -0.961294 -0.632304 -0.548120 -0.061784 0.067039 2.520666 1.856288 1.826328 1.344878 -1.068295 
% -0.160143 -0.094925 -0.056750 -0.006508 0.053013 0.449302 0.294282 0.284999 0.230890 -0.153822 
has -0.528023 -0.309815 -0.327800 -0.047208 0.044414 1.413824 1.067506 0.968261 0.754865 -0.628934 
american 0.021759 0.043626 -0.022049 -0.045506 0.029675 0.015874 -0.025217 -0.006413 -0.012311 -0.001234 
secretary -0.018130 0.000356 -0.027637 0.037614 0.038272 0.032613 -0.014740 0.002733 0.008054 -0.026830 
that -0.339310 -0.192947 -0.175373 0.018915 0.057464 0.763039 0.517118 0.558340 0.385442 -0.266401 
30 0.013297 0.047774 0.025323 0.007152 -0.022781 0.049660 -0.022229 0.033305 0.049832 0.048909 
be -0.007184 0.032603 0.045200 -0.021666 0.047021 -0.049641 0.002383 -0.004253 0.041949 -0.043117 
study -0.014554 -0.016039 0.004163 0.047490 -0.016550 -0.049211 -0.014777 0.042491 0.010458 0.029042 
established -0.377849 -0.221363 -0.172307 -0.037444 0.071020 0.812949 0.667733 0.578969 0.492375 -0.313925 
it -0.191384 -0.071014 -0.089362 0.040748 -0.016306 0.429078 0.349575 0.352960 0.260203 -0.187118 
later -0.003612 -0.011891 0.015254 0.024116 -0.038016 0.008135 0.057839 0.018119 0.061461 0.040645 
research -0.187403 -0.166213 -0.055293 0.010971 -0.024727 0.527169 0.316629 0.321100 0.305020 -0.165870 
institute -0.271252 -0.149366 -0.168960 -0.060759 0.051037 0.704710 0.530997 0.491068 0.369370 -0.247970 
tsing -0.056621 -0.016915 -0.051646 0.006324 0.013473 0.136022 0.127592 0.104695 0.032361 -0.068328 
hua -0.069283 -0.019520 -0.084794 0.006186 0.046432 0.263833 0.124506 0.187640 0.097151 -0.105161 
world -0.670231 -0.404439 -0.408947 -0.055486 0.083705 1.751756 1.325959 1.245972 0.918409 -0.702694 
war -0.037604 -0.050040 0.008053 -0.029753 0.054412 0.116816 0.037752 0.081192 0.051808 -0.035930 
revolution 0.030472 0.001131 -0.002521 0.003380 -0.027676 -0.002647 0.032544 0.034807 0.019742 -0.049687 
many 0.002081 -0.026247 0.036789 0.042824 0.032654 0.015532 0.012527 -0.017302 -0.024176 -0.019545 
institutions -0.038980 0.002748 0.008154 0.013835 0.021329 -0.039214 0.031207 -0.014015 -0.042484 0.039626 
began -0.234996 -0.135839 -0.152162 0.038374 0.004845 0.476812 0.423685 0.384067 0.319757 -0.198412 
out 0.036978 0.004073 0.036896 0.043529 0.017307 -0.005760 0.012000 0.039214 -0.031174 -0.005730 
top -0.499690 -0.295725 -0.264535 0.010812 0.076028 1.331721 0.918265 0.887686 0.718208 -0.473906 
is -0.634554 -0.398745 -0.400031 -0.069489 0.117660 1.690090 1.187279 1.149642 0.860604 -0.702658 
year -0.150500 -0.147815 -0.093352 -0.019773 -0.000417 0.490419 0.321016 0.324035 0.264682 -0.156024 
who -0.018625 0.037093 -0.045172 0.041881 0.006430 0.002455 0.026221 0.033073 -0.031699 0.030806 
each -0.377904 -0.253521 -0.178913 -0.011128 0.085106 0.999144 0.714631 0.732433 0.501581 -0.404969 
are -0.978359 -0.583192 -0.583310 -0.031251 0.152641 2.599959 1.939333 1.845872 1.443769 -1.053801 
union -0.010559 0.030327 -0.049826 0.011165 0.003705 0.044469 -0.036490 -0.000816 0.044629 0.014568 
medical 0.026163 0.012691 0.013776 0.010936 0.002194 0.034499 0.037708 0.028886 -0.019333 -0.027580 
programs -0.032013 -0.011269 -0.024356 -0.040733 -0.018823 0.035783 0.026187 -0.047148 -0.021161 0.040355 
master -0.003641 0.035988 -0.012463 -0.002242 -0.024777 0.016487 -0.041168 0.028307 -0.023160 0.027162 
program -0.030713 -0.022688 0.040274 0.025826 0.020465 0.015086 0.029587 -0.004710 0.038928 0.036943 
scholars 0.033841 0.043367 -0.023761 -0.036806 -0.032901 0.002870 0.008960 0.039153 -0.031577 0.031612 
will 0.038654 0.035130 0.001877 0.012404 -0.008118 0.046440 -0.043478 -0.046941 0.020209 -0.006606 
boxer 0.046420 -0.013609 0.000195 0.021306 0.010635 -0.029790 0.033405 0.000487 0.013229 -0.012669 
us 0.046399 0.026250 0.043265 0.045564 -0.009259 0.018907 0.014804 -0.022276 0.042993 0.023772 
$ -0.033090 0.041621 0.004718 0.011156 -0.036356 0.020070 0.002478 -0.023628 -0.005930 0.020882 
million -0.012164 0.039732 -0.027750 -0.023131 0.037354 0.046550 0.037247 0.045845 -0.047406 -0.032863 
indemnity -0.046878 0.010622 -0.039880 -0.003194 0.008939 -0.020988 0.011493 -0.044130 0.018759 -0.016173 
several -0.016724 -0.010359 0.021646 -0.017119 -0.022968 -0.031569 -0.018338 -0.041014 0.019324 -0.012447 
president -0.012131 0.019954 -0.038287 -0.032680 -0.045670 -0.001402 -0.019238 -0.046956 0.020108 -0.047270 
fund -0.021967 0.015038 0.049265 -0.034837 -0.019910 0.048613 0.030862 0.043709 0.038495 -0.025917 
this -0.021036 0.021181 0.029810 0.036760 0.032632 -0.044609 -0.044403 0.006956 -0.044070 0.029152 
beijing 0.040113 -0.020783 0.036273 -0.049348 0.042079 -0.017882 -0.002910 -0.043679 0.033669 0.038578 
former -0.040781 -0.009135 0.009723 0.044188 0.001657 -0.049046 0.006311 -0.018330 0.009036 0.039656 
first -0.028253 -0.026454 -0.004581 -0.010216 -0.017407 -0.034871 -0.000131 -0.040849 0.040411 0.026732 
government -0.013553 0.030568 -0.028235 -0.046333 0.044217 0.011848 0.028217 -0.033754 -0.012759 0.035805 
were -0.013672 0.009782 -0.045419 -0.039751 0.047662 -0.045412 0.010300 -0.032005 0.038782 -0.004024 
graduates -0.441110 -0.330028 -0.242902 -0.067844 0.020469 1.215423 0.944041 0.834632 0.678815 -0.497664 
( 0.031476 0.027757 -0.026785 -0.036766 0.007361 0.008598 0.006766 0.004671 0.020844 0.037584 
) 0.038071 -0.048717 0.048486 -0.039973 0.006192 -0.039116 -0.008148 0.046239 -0.024808 0.016286 
changsha -0.297596 -0.174242 -0.101984 0.014288 -0.017766 0.693709 0.504831 0.500944 0.371662 -0.302481 
province -0.001291 -0.042514 0.027421 0.007967 0.017172 0.038972 0.057294 0.052302 0.030896 0.025116 
communist 0.019720 -0.009828 0.045151 -0.001988 0.016895 -0.008479 0.014053 -0.007231 0.042291 0.019139 
at -0.003665 -0.004173 0.022473 -0.031660 -0.018942 0.014998 0.009003 -0.040565 -0.017715 -0.016905 
which -0.168829 -0.052024 -0.036795 -0.048021 0.047896 0.341011 0.287139 0.282513 0.196322 -0.185046 
taiwan -0.039343 -0.039601 0.004460 0.019328 0.016326 0.076799 0.062535 0.074021 0.031797 -0.082500 
country -0.001019 -0.026711 -0.026273 0.006618 -0.026306 0.026396 -0.015768 0.035945 -0.032745 -0.016103 
an 0.023740 -0.023302 -0.043774 -0.008894 0.031314 -0.013310 0.042169 0.018333 -0.028983 0.048732 
system -0.048352 -0.039107 0.031912 -0.029362 0.036224 0.039098 0.028061 -0.014781 -0.027539 -0.001741 
cultural -0.001474 -0.049712 -0.038080 0.008690 0.007370 0.048659 0.031165 -0.034297 0.043655 -0.011858 
some 0.031757 -0.010390 0.021445 0.001552 0.040259 0.025725 -0.020200 0.046700 -0.041766 0.044359 
even -0.441843 -0.254528 -0.211217 0.023849 0.068093 1.064732 0.749803 0.790959 0.580805 -0.406213 
" -0.635839 -0.395829 -0.344465 -0.047483 0.100455 1.541590 1.105312 1.086351 0.813356 -0.619548 
these -0.040671 -0.028410 0.002509 -0.023427 -0.024600 -0.042345 0.030542 0.041594 -0.015463 0.037959 
economics -0.019452 -0.048366 -0.049197 -0.004686 -0.020911 0.002007 -0.036740 0.037532 -0.022272 0.013023 
management 0.035971 -0.002574 -0.046973 0.029997 0.007999 0.032808 0.006549 0.023241 0.043405 0.026491 
public -0.035144 -0.011934 0.031253 -0.013713 -0.020490 0.044786 -0.014395 0.045009 0.027075 0.038713 
policy 0.045523 -0.039531 0.009113 0.040160 -0.024930 0.015480 -0.047815 0.044438 -0.036691 0.017854 
most 0.007855 -0.028139 0.024301 0.000404 -0.047314 -0.032259 -0.002890 0.020943 -0.011761 0.002391 
universities 0.045798 -0.037718 0.041077 -0.028877 -0.040573 0.032234 -0.037238 -0.005751 -0.047940 -0.036388 
competitive -0.767865 -0.477476 -0.466411 -0.016955 0.136242 2.051632 1.444203 1.392027 1.127239 -0.847845 
applicants -0.672480 -0.400103 -0.331093 -0.013538 0.046922 1.809267 1.255230 1.229680 0.998638 -0.671328 
chose -0.023822 -0.037209 0.004440 0.029323 0.023547 0.035429 0.043851 0.009431 -0.047736 0.024962 
general -0.025235 0.013466 0.038892 -0.023299 0.036246 -0.000761 -0.015009 -0.039040 -0.007645 0.049562 
paramount 0.017126 -0.026949 0.032156 -0.027751 -0.013141 0.033287 -0.030289 0.000111 -0.029248 -0.013020 
leader 0.044083 -0.009038 -0.029633 0.004442 0.019333 0.027614 0.012268 -0.019014 -0.015475 0.017879 
graduated 0.048016 0.036925 -0.046280 -0.005431 -0.045825 0.017570 -0.034018 0.015498 0.032306 -0.006764 
henry -0.976776 -0.640979 -0.507941 -0.082825 0.106369 2.509805 1.839327 1.753536 1.348349 -0.990227 
recently -0.525811 -0.353796 -0.274100 -0.050660 0.026489 1.344546 0.957652 0.876090 0.714758 -0.521669 
35 -0.018552 -0.042424 -0.049982 0.030138 -0.011075 0.006923 -0.024292 0.039690 -0.048032 -0.036992 
laboratories -0.014130 0.006761 0.034641 0.008644 0.007068 0.026665 0.026004 -0.048357 -0.009137 0.019713 
schwarzman 0.040121 0.024818 0.013818 0.031218 0.016055 -0.014018 -0.022504 0.031493 0.017868 0.017946 
aftermath 0.008459 0.015849 0.034622 0.028523 -0.041730 0.004601 -0.019620 -0.049474 0.003491 0.043059 
rebellion -0.005795 0.041768 0.045685 0.001537 0.040158 -0.014940 0.011414 -0.024654 0.007303 -0.011784 
state -0.047760 -0.015199 0.009702 -0.015953 0.044727 -0.024788 -0.013583 0.030367 -0.009564 0.016893 
john 0.001511 0.009987 0.015930 0.005156 0.044046 0.030721 -0.027228 -0.039687 0.028085 0.025380 
hay 0.037524 0.027678 -0.007309 -0.048222 0.011749 -0.022438 0.001926 -0.007274 0.022009 0.005278 
suggested 0.044852 -0.043962 0.019867 0.031139 0.035532 -0.025475 -0.018115 0.000456 0.013028 0.006001 
plus 0.009625 -0.016457 0.041403 0.033278 0.029651 -0.024287 0.009720 -0.035832 -0.006476 -0.002724 
paid 0.032040 0.031483 -0.022192 -0.006453 0.047427 -0.006963 -0.015936 0.034837 0.019943 0.031642 
excessive 0.038855 0.016460 0.038651 -0.044890 -0.006256 -0.041273 0.017612 -0.003746 0.025293 0.006950 
negotiations -0.004111 0.012886 0.035065 0.031444 0.037546 -0.012181 0.049622 0.027519 0.031644 0.028865 
theodore 0.020526 0.015489 -0.007755 -0.031163 0.024341 0.040666 -0.041586 -0.034453 -0.037372 -0.026637 
roosevelt -0.005789 0.001808 -0.038049 0.008891 -0.011301 -0.014568 -0.026129 -0.032436 -0.044058 0.049232 
obtained -0.025049 -0.005305 0.035001 -0.048979 -0.033246 -0.039406 -0.010062 -0.026390 -0.024158 -0.039424 
congressional 0.009818 0.024812 -0.046222 0.014952 0.008701 0.037440 -0.022876 -0.030965 0.025650 -0.030693 
approval 0.047443 -0.006862 0.024728 0.003224 -0.008704 -0.017427 -0.005002 0.047005 -0.039752 -0.042348 
1909 -0.049478 0.033461 0.030859 -0.036311 0.030362 0.020406 0.004694 -0.029005 -0.001419 -0.009349 
reduce 0.008313 -0.025117 0.044241 -0.047990 -0.006720 -0.004335 -0.018594 0.037294 0.036157 -0.021346 
qing 0.049136 0.004317 0.038507 -0.005836 0.011496 0.035890 0.026892 0.037505 -0.042453 0.039827 
dynasty -0.047125 0.028990 0.001352 0.048940 -0.006982 0.013933 -0.018027 0.021040 0.048883 -0.037355 
payment -0.036526 0.038942 0.047034 -0.029561 0.034915 0.010457 0.039032 -0.042372 0.010361 -0.031602 
10.8 0.001440 -0.030476 0.028873 -0.029424 0.035822 -0.023561 -0.045486 -0.000194 -0.031262 -0.026314 
condition -0.023654 -0.036101 -0.048248 -0.018422 0.008432 -0.004332 -0.038574 0.045427 -0.010165 -0.047075 
said -0.000677 0.035545 -0.015384 0.018483 -0.007996 0.047246 -0.018161 0.000154 -0.008966 0.000841 
used -0.004434 0.030751 -0.027026 0.041643 -0.035141 -0.031914 0.039386 0.039964 -0.046219 -0.005028 
scholarship 0.016833 -0.008882 -0.048605 0.019221 -0.043121 0.015416 -0.028238 -0.026353 0.036084 -0.041829 
using -0.046054 0.016060 -0.043988 -0.010304 -0.037991 0.029274 0.043225 0.005302 -0.014987 0.021101 
29 0.049286 0.025304 0.037021 0.024355 -0.049243 -0.004988 -0.042905 -0.003154 0.049200 -0.015260 
april 0.009299 0.021388 -0.028821 -0.010201 -0.017307 0.005794 -0.031744 0.030504 -0.008658 -0.017125 
1911 0.016992 -0.047835 -0.025693 0.010445 0.018951 0.025096 -0.004349 -0.028685 0.000696 0.044609 
site 0.044437 -0.026701 0.013788 0.031017 0.034726 0.049208 0.034790 0.029631 0.005582 -0.043144 
royal -0.034735 0.010765 0.021066 -0.020946 0.031775 -0.030269 -0.029758 0.023616 -0.014117 0.026842 
garden -0.032828 0.023354 0.004150 0.027409 -0.049081 0.036079 -0.011859 0.041747 -0.014456 0.044606 
belonging -0.035583 -0.034834 -0.039890 -0.043254 -0.015460 0.017979 -0.011319 0.005312 0.025073 0.045500 
prince 0.010318 0.048116 -0.012421 0.018040 -0.010916 -0.032030 -0.001379 0.030913 0.014041 -0.027312 
preparatory 0.009760 0.004430 -0.000748 -0.004918 -0.002441 -0.016096 -0.016220 -0.007036 -0.036420 0.039647 
sent 0.031686 0.049147 0.034387 -0.033028 0.032034 -0.028557 -0.038458 -0.013808 -0.001114 -0.007335 
faculty 0.021606 0.042619 -0.028696 -0.029375 0.016144 0.006566 0.013351 -0.011864 -0.028284 -0.026656 
members 0.014090 -0.046989 0.039886 -0.036732 -0.012418 -0.001939 -0.002783 0.021648 -0.027109 -0.018901 
recruited 0.045270 0.018797 0.034079 -0.015062 0.010608 -0.049971 -0.039792 0.017390 0.044794 0.035655 
ymca -0.034659 0.011269 0.024390 0.020988 -0.011459 0.024385 -0.049042 -0.023659 -0.006131 0.039552 
transferred -0.048938 -0.002974 -0.029611 -0.035417 -0.023737 0.003355 0.032162 0.032289 0.003125 0.040642 
directly 0.018253 0.000484 0.033209 -0.020802 -0.007278 -0.048021 -0.006921 0.014336 0.044632 -0.005412 
juniors -0.312626 -0.246459 -0.194811 -0.052309 0.070626 0.862706 0.611179 0.627901 0.463894 -0.326588 
upon -0.472753 -0.286928 -0.227241 -0.019527 0.040600 1.279619 0.955124 0.916476 0.711794 -0.511060 
graduation -0.516543 -0.284789 -0.259606 -0.069957 0.082062 1.363760 0.996935 0.893221 0.702848 -0.579225 
1925 -0.339014 -0.193412 -0.138473 -0.039710 0.002897 0.855447 0.651603 0.592584 0.426961 -0.302795 
department -0.526020 -0.386742 -0.274618 0.011431 0.089767 1.419497 1.006163 0.983381 0.734294 -0.547114 
started -0.635379 -0.389910 -0.298277 -0.008981 0.051031 1.618289 1.196173 1.154495 0.828011 -0.656454 
studies -0.346297 -0.213422 -0.192653 0.029556 0.070189 0.798710 0.609807 0.533999 0.414803 -0.285636 
1928 -0.022250 -0.026836 -0.007098 -0.026833 -0.027078 -0.018700 0.026599 -0.044429 -0.023215 -0.013200 
authority 0.022894 0.011119 0.003403 0.022475 -0.041650 -0.014876 -0.008163 0.046138 0.034528 0.047899 
officially 0.006149 0.040602 -0.022009 -0.005244 0.035403 0.013680 0.040302 0.046007 -0.006339 -0.001817 
changed -0.001978 0.046965 0.019986 -0.048076 -0.047284 -0.032057 -0.021561 -0.042284 0.030945 0.004253 
name -0.041916 0.023372 -0.015729 -0.023793 -0.027017 -0.018297 -0.010742 0.029118 -0.037802 -0.009477 
nthu 0.047467 0.033299 -0.010208 0.032643 -0.014539 -0.015938 0.044827 0.015877 -0.045197 0.001720 
during 0.041367 -0.026964 0.032056 0.031584 0.018472 -0.038066 0.018781 0.043968 0.040207 -0.034618 
ii 0.041541 0.034184 -0.004367 -0.008806 -0.048102 0.022545 -0.001187 -0.027818 0.026416 -0.045638 
1937 -0.011191 -0.033842 -0.033344 -0.000050 0.029684 -0.044066 -0.000818 -0.045381 0.010501 0.049324 
along -0.024445 0.038683 0.045322 -0.020860 -0.027661 -0.002547 -0.026791 0.003194 -0.008905 0.001244 
nankai -0.187675 -0.079244 -0.111407 0.040321 0.004472 0.348252 0.290393 0.204733 0.170292 -0.144663 
merged -0.204710 -0.144084 -0.115887 -0.032071 0.006207 0.478117 0.349054 0.315162 0.249774 -0.164070 
form -0.070845 -0.043960 -0.045328 -0.050291 0.017979 0.264707 0.199595 0.220362 0.117662 -0.116590 
temporary -0.135522 -0.020867 -0.017085 -0.031302 -0.007988 0.290574 0.222432 0.199918 0.139029 -0.135084 
southwestern -0.138215 -0.047480 -0.059755 0.040754 0.026642 0.401991 0.311694 0.247846 0.185104 -0.157743 
associated -0.138124 -0.069574 -0.081908 -0.002925 0.058322 0.410340 0.359276 0.306071 0.212480 -0.206301 
kunming -0.217674 -0.121167 -0.129620 -0.055352 -0.016359 0.394578 0.316938 0.304354 0.266689 -0.180667 
yunnan -0.369905 -0.164808 -0.167326 0.009964 0.014764 0.909429 0.664602 0.604955 0.431150 -0.365324 
moved -0.289713 -0.150344 -0.161394 -0.065488 0.077156 0.713594 0.470530 0.511447 0.349777 -0.278883 
back -0.296663 -0.214043 -0.189704 -0.004408 0.084723 0.773009 0.651992 0.580877 0.477814 -0.354890 
resumed -0.217280 -0.156408 -0.124842 0.011106 -0.006128 0.602539 0.445092 0.359502 0.249025 -0.235925 
operation -0.042223 -0.045362 -0.071426 -0.040217 0.021739 0.162393 0.118166 0.075107 0.079927 -0.045195 
end 0.023642 0.016054 -0.004028 -0.026570 -0.045346 -0.019267 0.042853 0.042845 -0.007205 -0.027538 
civil -0.011731 0.002592 0.027127 -0.000945 -0.016217 -0.027016 -0.028287 -0.006676 0.005957 -0.000667 
1949 -0.034384 0.013081 -0.043646 -0.048048 -0.027103 0.041139 -0.038464 0.026152 -0.017380 -0.014690 
led -0.026935 0.042247 0.008847 -0.021593 -0.032495 0.045549 -0.009360 -0.021758 0.046417 0.006371 
creation -0.007938 -0.032372 0.036365 0.020024 0.002176 -0.045622 -0.011090 0.006822 0.035043 -0.028697 
people -0.019385 0.012077 0.029727 -0.023784 0.013043 0.006102 -0.049710 -0.048070 0.012756 -0.015791 
republic -0.014206 0.006258 0.031317 -0.033290 -0.049698 -0.027989 0.045288 -0.001082 -0.017123 0.007002 
prc -0.043768 -0.048854 0.047580 -0.005956 -0.009290 0.018706 0.033475 0.040950 0.000287 0.021910 
then -0.045377 -0.019469 -0.038477 0.006071 -0.049911 -0.029399 -0.024017 0.041502 -0.016068 -0.006029 
mei -0.029773 0.023515 0.045218 -0.041545 -0.004181 -0.027577 0.048007 -0.003136 0.029321 0.033537 
yi-qi 0.031363 -0.032988 -0.027704 -0.022829 -0.040652 -0.048289 -0.048694 -0.001363 0.021024 -0.041228 
followed 0.017914 0.018248 0.030453 0.021010 0.048682 -0.018684 0.026700 -0.003764 0.045172 -0.041847 
professors -0.026175 -0.032738 0.033948 0.044072 -0.039108 0.041902 -0.033429 -0.040614 0.001962 -0.047032 
fled 0.019604 0.049406 0.036099 -0.041728 -0.005389 -0.015553 0.027365 0.040627 0.018152 -0.040181 
where -0.035178 0.007845 0.041791 -0.004164 -0.037466 -0.007262 0.042090 0.037810 -0.040439 -0.046880 
they 0.020612 -0.043947 0.019968 -0.028197 0.003918 0.045879 0.032816 -0.043401 0.043573 0.027599 
nuclear 0.012167 0.040321 0.016138 0.046526 -0.002914 -0.019218 0.023175 -0.027028 -0.048367 -0.039207 
technology -0.043420 -0.018122 -0.052684 -0.012749 -0.022555 0.042031 0.014549 0.058275 0.088500 -0.057379 
1955 -0.084827 -0.039413 -0.066769 0.027199 0.040618 0.343491 0.222760 0.265615 0.143020 -0.129300 
became -0.017914 -0.048909 -0.043072 -0.046408 0.026370 0.137544 0.094015 0.113284 0.018508 -0.000686 
1952 0.032150 0.012209 -0.029407 0.025932 0.021170 -0.000261 0.008295 -0.005238 -0.004556 0.029945 
regrouped 0.047656 -0.005452 -0.005966 -0.039360 -0.009760 -0.004396 -0.018997 -0.025365 -0.037390 -0.006758 
higher 0.045413 -0.020256 0.016327 0.007774 0.001328 0.008778 0.027954 -0.015486 -0.012192 0.019551 
education -0.000946 -0.006227 -0.031082 -0.005125 -0.043811 0.030864 0.033719 0.042561 -0.049078 0.016100 
attempt -0.003726 -0.004576 -0.040186 -0.005208 -0.004355 0.011275 -0.015570 0.037254 -0.004105 -0.027074 
build -0.048669 0.038799 -0.013913 -0.011809 0.012079 0.019737 -0.019717 -0.010118 0.043237 0.025383 
soviet 0.017545 0.035811 0.046368 0.026048 -0.038065 0.008791 0.048035 0.017046 0.002518 0.016634 
style -0.000201 0.018687 -0.046646 -0.007848 -0.021777 -0.023714 -0.046494 -0.006841 -0.015131 -0.039845 
individual -0.032962 0.002467 0.046301 -0.034395 -0.016989 0.027888 0.014081 0.012950 0.015488 0.002235 
tending -0.035229 0.047502 0.003531 -0.016679 -0.000067 0.039574 0.011203 -0.046043 0.046130 -0.015523 
specialize 0.027567 0.021956 -0.045074 0.002525 -0.033316 0.020131 0.002881 0.039030 -0.032382 0.006294 
certain -0.008441 -0.035695 -0.005569 -0.036742 0.047522 -0.026338 0.036185 -0.001164 0.022333 -0.012587 
field 0.006943 0.045839 -0.007446 -0.049129 0.045767 -0.037920 -0.040253 0.034349 0.016721 0.030373 
when -0.049524 0.033159 0.008865 -0.041472 0.016302 -0.032387 0.036264 -0.020641 0.033789 -0.016975 
1966 0.037979 -0.049321 0.004498 0.049706 -0.021927 -0.044701 -0.045007 -0.037032 0.045609 0.001033 
walked 0.036835 0.043126 -0.045352 0.020692 0.026587 0.035490 0.044254 -0.027910 0.025812 0.010374 
classrooms -0.021512 0.038039 -0.038928 -0.036909 0.046414 0.026350 -0.016071 0.013951 -0.037906 -0.030162 
went -0.029053 0.008269 -0.035410 0.026314 0.023688 0.016356 0.017966 -0.021410 -0.031287 0.033525 
part 0.011282 0.034480 -0.042413 -0.019911 -0.041397 0.026796 -0.033130 0.001360 -0.001010 0.013350 
red -0.001874 -0.032350 -0.003494 -0.023045 -0.022083 -0.025728 0.040213 0.025423 -0.042194 0.041539 
guards 0.044174 -0.008434 0.014355 0.014763 0.047452 0.033199 0.049127 -0.035744 0.014108 0.033131 
resulting -0.011316 -0.014668 0.033206 -0.000822 -0.015411 -0.001698 0.018808 -0.035851 0.013403 0.048479 
complete 0.009976 -0.014140 -0.023309 0.006175 -0.029227 0.047121 0.001013 -0.033296 -0.009738 -0.044255 
shutdown 0.037933 -0.049623 -0.017496 0.044545 -0.035986 0.002507 -0.013437 -0.028667 -0.019183 -0.006593 
not -0.033499 0.018922 0.014905 0.018388 0.011380 -0.004875 0.017841 -0.002235 0.035263 0.032753 
until -0.033813 -0.023152 -0.022787 -0.010381 -0.038495 0.025951 0.001291 0.048537 0.030359 0.040385 
1978 -0.003439 0.017317 0.024310 0.040465 -0.022916 0.028773 0.019922 -0.028499 -0.018076 0.040718 
had 0.018756 0.003807 -0.024857 0.035963 0.047375 0.032695 0.045804 0.022322 -0.042657 -0.021523 
ended 0.007968 0.032607 0.025220 -0.013533 0.000699 0.024629 -0.047430 0.026976 -0.011942 -0.018797 
take -0.607333 -0.360597 -0.348603 -0.011675 0.085478 1.475206 1.096453 1.067004 0.766347 -0.559811 
again -0.598077 -0.349263 -0.372910 -0.033218 0.113007 1.589867 1.164878 1.152987 0.902271 -0.663553 
so -0.498543 -0.268338 -0.229492 -0.055407 0.045931 1.251098 0.916930 0.883899 0.734101 -0.500418 
remained -0.652890 -0.379137 -0.359525 0.003439 0.051673 1.781230 1.297508 1.189143 0.978154 -0.709563 
tier -0.816238 -0.523550 -0.374378 -0.059042 0.098933 1.933598 1.395578 1.336870 1.093490 -0.784202 
sometimes -0.809404 -0.519167 -0.466570 -0.049744 0.112013 2.036085 1.438844 1.462268 1.097223 -0.815041 
called -0.589952 -0.359056 -0.253336 0.014906 0.021792 1.425401 0.964454 0.953383 0.755543 -0.546026 
mit -0.748882 -0.493394 -0.372806 -0.069462 0.090860 1.938188 1.364152 1.352413 1.061516 -0.786288 
imply -0.374977 -0.255969 -0.201825 -0.024666 0.056226 0.911826 0.626314 0.654880 0.521477 -0.356659 
specialty -0.324150 -0.186678 -0.215868 0.002597 0.027404 0.811617 0.627755 0.640936 0.435546 -0.362959 
since 0.032318 0.013316 0.017905 -0.021812 0.006055 -0.040022 0.025870 0.030757 0.033014 -0.042091 
1980s -0.027786 0.016628 0.039758 0.002422 0.045999 0.043611 -0.022150 0.013829 -0.038712 0.044521 
incorporate 0.023853 0.037444 -0.042856 -0.022832 -0.020673 0.043578 -0.002371 0.024367 -0.029163 0.027544 
multidisciplinary -0.028195 -0.006071 0.049945 0.009654 -0.006265 0.018666 -0.006787 0.035222 0.002481 -0.043608 
result 0.002203 -0.025441 -0.037894 -0.010081 0.003479 0.022978 -0.038327 0.027058 0.048602 0.000792 
re-incorporated 0.015244 0.000624 0.014136 -0.046687 -0.038120 -0.031572 0.001642 -0.049147 -0.034354 0.013283 
included 0.037683 -0.011275 0.015604 0.043001 -0.026178 -0.012758 0.025815 -0.009605 -0.013379 -0.008284 
life 0.035342 0.013277 -0.022357 -0.027541 0.008249 -0.005540 -0.026550 0.024785 0.033597 0.041756 
humanities 0.025604 -0.030995 0.025449 -0.012022 0.010669 -0.049568 0.022867 -0.009062 0.030206 0.039378 
social -0.010086 0.033449 0.010779 0.031157 0.015652 0.023323 0.003949 0.046080 0.014145 -0.006627 
academy -0.050039 0.008998 0.008481 -0.000670 -0.035755 0.040359 0.075780 0.092809 0.096750 -0.026071 
arts -0.092305 -0.043934 -0.016752 0.015927 -0.000759 0.137340 0.108212 0.120747 0.108196 -0.005515 
design -0.040892 0.005780 -0.032298 -0.016883 -0.008870 -0.031718 -0.016831 0.045176 0.048049 -0.019263 
present -0.041275 0.027602 -0.007812 0.048454 -0.030185 0.020796 0.047272 0.012010 -0.030716 -0.002708 
rankings 0.032141 -0.027852 0.046194 -0.035100 -0.001642 0.049181 0.014609 -0.043565 0.022485 -0.011580 
place 0.013589 0.029707 0.006085 -0.039821 0.007199 -0.032469 -0.024280 -0.040230 -0.015500 -0.022282 
amongst -0.017047 0.007506 -0.040445 -0.006920 0.004346 0.048698 -0.028574 -0.028569 0.041461 -0.046339 
best -0.015823 -0.004417 0.020862 0.017705 -0.013132 -0.026653 -0.005890 -0.038857 -0.006436 0.037538 
mainland 0.037769 0.029289 0.043326 0.045967 -0.046600 -0.007545 0.000217 -0.018553 -0.032434 0.045952 
admission -0.046701 -0.048210 0.031830 0.010094 0.016635 -0.010191 0.022754 0.030193 0.029288 -0.046684 
extremely 0.041901 -0.023439 -0.044681 0.025124 0.015833 0.044511 -0.016208 0.013045 -0.003888 -0.045644 
every 0.028769 0.049892 -0.040698 -0.048592 0.029312 -0.006523 0.006964 0.005980 0.049484 0.026613 
scoring -0.034338 0.013383 -0.021652 -0.042888 -0.013043 -0.006068 0.029965 0.017787 0.047412 -0.007063 
highest 0.043399 -0.033549 0.048590 -0.019289 -0.017288 -0.014085 0.017053 -0.047432 0.036966 -0.016008 
entrance 0.004364 0.028819 0.020224 -0.006505 -0.012915 -0.045222 -0.028452 -0.027763 -0.033221 0.000755 
exams -0.044998 0.003029 -0.029993 -0.037935 -0.040353 -0.006316 0.048334 -0.040981 -0.000455 -0.022984 
choose -0.021680 0.036931 0.013760 0.010835 -0.038470 -0.033888 -0.033646 -0.022044 0.024524 0.041875 
according 0.046390 -0.013811 0.018866 -0.015468 -0.032071 -0.031651 0.021118 0.039397 -0.029965 -0.017754 
report 0.032843 -0.023219 0.016769 0.010695 -0.019397 -0.008003 -0.002805 -0.038493 0.015961 0.005357 
2008 0.025375 -0.032506 0.015479 -0.037825 0.040372 -0.013530 -0.019281 0.032762 0.006247 0.001247 
215 0.038245 0.012431 0.012064 0.019637 0.039618 0.021495 -0.028116 -0.025548 -0.038599 0.005266 
300 0.024771 0.023506 0.005157 0.034056 0.034787 0.049611 -0.002551 0.003178 -0.009006 -0.039421 
scored -0.010162 0.032945 0.007455 -0.010777 -0.041113 -0.031331 0.023233 -0.006645 0.006158 -0.019337 
10 0.002390 -0.044212 -0.041785 -0.035762 0.033987 -0.015666 -0.033380 0.039708 0.032089 0.011806 
tested 0.007935 -0.047615 0.035757 -0.003984 -0.016278 -0.027419 0.009055 0.019777 0.020544 -0.004390 
provinces 0.041043 -0.009099 -0.030035 0.041783 0.045786 0.042201 0.008545 -0.043587 -0.037656 0.031490 
regions 0.037848 0.009813 -0.045218 0.041579 -0.015564 -0.002705 0.012161 -0.019719 -0.000128 0.039171 
21 0.048544 -0.019591 -0.039282 -0.019246 0.002994 -0.000224 -0.031464 -0.007643 0.039572 0.021193 
scorers 0.049890 -0.030708 0.047342 -0.047527 -0.043658 0.031871 0.040366 0.026430 -0.035547 0.025407 
region -0.042294 0.000874 -0.024213 0.020213 -0.036575 -0.041380 0.016907 0.011601 0.046585 0.007478 
majority 0.039374 0.019884 0.021249 -0.019737 0.019751 -0.009627 0.026480 0.034785 -0.040399 -0.006618 
selected 0.026340 -0.046141 -0.014514 0.024223 0.009891 0.045296 0.048969 0.003209 -0.008804 0.041908 
among -0.668672 -0.451278 -0.359063 -0.027740 0.096041 1.779201 1.324504 1.243931 0.904897 -0.699708 
brightest -0.594623 -0.421356 -0.349476 -0.046972 0.019662 1.612000 1.161194 1.103905 0.865099 -0.639859 
high -0.580454 -0.358560 -0.317264 -0.003327 0.086458 1.332396 1.037746 0.931627 0.786375 -0.593812 
admissions -0.520623 -0.332804 -0.281641 -0.015323 0.076304 1.354854 0.938938 0.907394 0.757788 -0.542489 
graduate -0.542090 -0.349017 -0.304645 -0.068755 0.098375 1.399478 1.041728 0.935557 0.693353 -0.597197 
also -0.589457 -0.391012 -0.376371 0.015718 0.042473 1.626684 1.155523 1.107194 0.870849 -0.619695 
very -0.798538 -0.473240 -0.439842 -0.063342 0.056259 1.939869 1.383996 1.335767 1.056246 -0.727827 
only -0.452115 -0.297878 -0.304564 0.022049 0.039489 1.190759 0.883861 0.900984 0.631701 -0.520920 
about -0.685397 -0.435560 -0.350123 -0.001772 0.049933 1.817681 1.365947 1.320144 1.010831 -0.756629 
16 -1.010643 -0.631837 -0.591117 -0.040001 0.099433 2.638309 1.903295 1.874313 1.430782 -1.074757 
mba -0.896203 -0.573535 -0.512541 0.004077 0.109058 2.244245 1.707215 1.613474 1.176401 -0.951051 
admitted -0.629108 -0.382084 -0.308811 0.018118 0.051499 1.530872 1.116621 1.089823 0.866910 -0.620919 
alumni -0.009631 -0.043550 0.022586 0.029085 -0.018024 0.001060 -0.042984 0.016322 0.037744 -0.010872 
include -0.021738 0.016548 -0.040765 -0.009035 -0.049612 0.012575 -0.026990 0.001884 -0.037546 0.012215 
current 0.030634 0.042198 0.028525 0.048280 0.008667 -0.042781 -0.012338 -0.021416 0.008673 0.017259 
party 0.003928 -0.014061 -0.042786 0.017632 -0.033615 -0.021843 0.005853 -0.021352 -0.010904 -0.011949 
xi 0.031152 0.045622 0.011124 -0.026567 0.034674 -0.011134 -0.003470 0.017116 0.042981 0.003691 
jinping 0.034378 0.026912 0.007635 0.010411 0.038730 0.035634 0.005200 -0.045662 0.048648 0.001094 
chemical 0.037238 0.005785 0.028195 0.006105 0.030310 -0.039937 -0.033566 -0.041521 0.035980 0.037486 
1979 -0.022574 -0.008971 0.030811 -0.016634 0.000235 -0.038432 0.016364 -0.031984 -0.001077 -0.047093 
well 0.019202 -0.013252 -0.037448 -0.027141 -0.009113 -0.040126 0.005185 -0.045763 0.007983 0.032707 
cpc -0.034116 -0.045146 -0.027948 -0.024440 0.008713 -0.042479 0.009656 -0.016255 0.022733 -0.029948 
hu -0.027643 -0.022426 0.022006 0.025258 0.036719 0.002361 0.045596 -0.019048 0.004303 0.028416 
jintao -0.042435 0.019948 0.001672 -0.048946 0.046976 -0.049944 -0.019611 -0.009413 0.027890 0.004091 
hydraulic 0.017017 -0.007674 0.039371 0.039864 0.013116 0.026585 0.045480 0.040187 -0.004749 -0.011324 
1964 0.035281 0.012874 0.014984 -0.001088 0.022836 -0.009264 0.048877 0.002605 0.047208 0.031587 
reputation -0.001508 -0.029933 -0.027542 0.018239 -0.009607 -0.003389 -0.012350 -0.041496 -0.023859 0.002550 
hosting 0.006845 -0.014806 0.032300 0.033195 -0.030893 -0.043877 -0.039569 -0.041139 0.038498 -0.045897 
distinguished -0.012903 -0.025142 0.004080 -0.013054 -0.036139 0.001500 -0.020084 -0.012535 -0.032715 -0.015901 
guest -0.799509 -0.488047 -0.432591 -0.038221 0.133547 2.105360 1.489497 1.461758 1.089979 -0.824983 
speakers -0.964739 -0.591415 -0.463721 -0.038660 0.058366 2.362806 1.714626 1.688834 1.310333 -0.991050 
any -0.975232 -0.602254 -0.532227 0.002894 0.135935 2.454236 1.815638 1.706864 1.314569 -0.969494 
leaders -0.544695 -0.288524 -0.265282 0.004821 0.065988 1.367433 0.976218 0.966707 0.719683 -0.516659 
such -0.999704 -0.681208 -0.570347 -0.073238 0.143012 2.693911 1.926051 1.813498 1.428797 -1.083020 
bill -0.845881 -0.544365 -0.448657 -0.056510 0.080866 2.091289 1.545354 1.494740 1.108663 -0.889240 
clinton -1.010078 -0.635022 -0.501734 -0.048547 0.092661 2.460163 1.838582 1.725587 1.297564 -0.998776 
tony -0.953593 -0.571797 -0.463880 -0.066656 0.101451 2.449913 1.752126 1.714165 1.322488 -0.929507 
blair -0.887241 -0.560323 -0.435945 0.005622 0.048843 2.240239 1.649336 1.601764 1.265369 -0.909356 
kissinger -1.182957 -0.774988 -0.674919 -0.085181 0.090387 3.165828 2.318426 2.249882 1.737023 -1.214371 
carlos -0.660413 -0.387236 -0.345008 -0.035576 0.085217 1.686061 1.248439 1.135106 0.886086 -0.649124 
ghosn -1.043344 -0.614461 -0.584166 -0.008512 0.121150 2.554413 1.844906 1.805375 1.388906 -0.992504 
paulson -0.807450 -0.536338 -0.436246 -0.009691 0.062271 2.165940 1.596637 1.544938 1.173289 -0.919181 
all -0.854696 -0.514359 -0.446641 -0.056780 0.116374 2.134375 1.568742 1.430895 1.173137 -0.857921 
giving -1.015877 -0.702364 -0.568757 -0.086392 0.074806 2.719586 1.971958 1.936330 1.510650 -1.095482 
lectures -0.979263 -0.610226 -0.554777 -0.018837 0.111920 2.636008 1.916976 1.857438 1.354364 -1.034087 
community -0.751620 -0.500051 -0.428718 -0.006745 0.127002 1.983522 1.428255 1.388686 1.099477 -0.843342 
2003 -0.018097 -0.019423 -0.038174 0.028065 -0.044751 -0.015340 0.028775 0.009932 -0.024432 -0.041237 
12 -0.022147 -0.006151 -0.030579 -0.001802 -0.001877 -0.012370 -0.011627 0.023277 0.003647 0.024086 
colleges 0.008984 -0.020686 0.033487 -0.038969 0.032819 0.036620 -0.048294 -0.018724 -0.013562 -0.009492 
48 0.047366 -0.007365 0.021405 -0.038710 0.034531 0.027919 0.014282 -0.005721 -0.047739 0.044942 
departments -0.033368 -0.040211 -0.035379 0.026515 0.005017 -0.046870 -0.039328 -0.019548 -0.019000 -0.005385 
41 -0.045523 0.039565 -0.028857 0.029558 -0.014902 -0.038335 -0.022992 0.028270 0.016599 0.029567 
institutes 0.025159 -0.013936 0.038040 -0.048918 -0.032843 0.023253 -0.036514 -0.040977 -0.020435 -0.014851 
centers 0.031998 0.011201 -0.036053 0.042064 0.007639 -0.009569 0.046863 -0.010689 -0.020529 0.004524 
167 -0.020123 0.047203 -0.038443 -0.013707 0.039551 -0.038948 -0.007040 -0.006450 0.027448 0.001170 
including 0.037741 0.009108 -0.029871 -0.037129 -0.015036 0.040779 0.019159 -0.033534 0.048691 0.021376 
15 -0.048901 -0.042732 -0.032016 0.008711 -0.032489 0.005589 0.006906 -0.014403 -0.005042 0.006743 
key -0.045480 -0.040154 -0.014996 -0.018959 0.024887 -0.035728 0.014209 -0.026204 -0.042929 -0.043315 
september -0.015863 -0.044679 0.015134 0.019899 0.021350 0.020927 -0.011862 -0.038274 -0.022589 -0.009071 
2006 -0.009854 0.014980 0.028882 0.010637 -0.039780 0.037471 -0.022675 -0.049635 -0.037576 0.012013 
renamed 0.049304 0.005424 -0.014182 0.046419 -0.003619 -0.003871 0.044467 -0.026500 -0.004883 -0.032210 
although -0.022568 -0.048930 0.047076 -0.009279 0.048776 -0.038060 -0.021179 -0.039766 0.047562 0.013924 
remain 0.041913 -0.003358 -0.012149 0.039833 0.012915 0.045256 0.008707 -0.002519 -0.006610 -0.023610 
two -0.025809 -0.030321 0.009900 -0.014644 -0.026633 -0.035759 0.014008 -0.007533 0.020297 0.013979 
separate -0.017725 0.043034 -0.045956 -0.023296 0.016266 0.007372 0.038669 0.035231 0.042542 -0.019209 
offers -0.036765 -0.002629 0.012665 -0.016396 0.041806 -0.004063 0.003198 -0.038875 0.013443 -0.011259 
51 0.015704 -0.016335 0.042209 -0.041405 -0.023254 0.046538 0.017166 0.013313 0.037885 -0.029945 
bachelor -0.047623 -0.014293 -0.024316 -0.000471 -0.013095 0.033589 -0.008295 0.005272 -0.015189 0.039772 
139 0.012512 -0.017403 0.035159 0.012068 -0.010333 -0.048183 -0.047989 -0.016710 -0.000269 -0.041756 
107 -0.025571 0.011250 0.044269 -0.027809 -0.033524 -0.021239 0.049841 -0.011031 0.017215 -0.006364 
phd -0.031989 0.028893 0.040707 -0.011314 -0.024658 0.037273 -0.023984 0.021724 -0.026605 -0.015578 
become -0.012796 -0.024437 -0.011267 -0.034346 -0.036667 -0.041985 -0.027081 0.001280 0.018466 0.001894 
offer 0.002515 0.036613 -0.008334 -0.034990 -0.020917 0.041966 0.046994 0.030177 0.029187 0.012651 
laws -0.026486 0.005208 0.004388 -0.031020 -0.014713 0.022914 -0.018750 -0.043733 0.021378 0.041109 
through -0.038666 0.044823 0.045847 0.042604 -0.028796 0.029961 0.047757 0.035213 -0.037579 0.031993 
cooperative 0.041171 -0.048253 0.011548 -0.003767 -0.034848 -0.049980 0.020148 -0.007008 -0.016238 0.012843 
venture 0.014783 0.017583 -0.013937 0.048030 0.047015 -0.009682 -0.013882 -0.011607 -0.006592 -0.043489 
temple 0.022989 -0.008257 -0.044476 -0.013527 -0.039261 0.040895 -0.040076 -0.024483 -0.011569 0.043660 
beasley -0.041827 0.043956 0.020126 0.032851 0.026831 0.037102 -0.005112 -0.033720 -0.032538 0.025267 
member -0.023221 0.026759 0.006628 0.003764 -0.045139 0.022102 -0.004108 -0.007094 0.043198 -0.014879 
laotse 0.011816 0.038005 -0.019150 -0.026372 -0.044037 0.009373 0.031882 -0.029564 -0.045105 0.002324 
network -0.014645 -0.016643 -0.039825 0.037169 -0.044669 0.045204 0.048364 -0.040779 -0.019125 0.013789 
leading 0.021027 0.038792 0.026047 -0.028075 0.004724 -0.028804 -0.020090 0.027425 -0.048981 -0.023256 
europe -0.043472 0.013100 0.036475 0.000749 -0.005038 -0.013237 -0.037347 0.013524 -0.040726 0.031227 
asia -0.043884 0.010381 0.038528 -0.045695 -0.031573 0.011632 0.046786 -0.011192 -0.023853 -0.037410 
celebrates 0.023111 -0.007451 -0.019159 0.033568 0.031564 0.048341 0.009070 0.019878 -0.038791 -0.036003 
intellectual 0.012396 0.041832 0.026108 -0.027672 -0.032617 0.044743 -0.034677 0.031148 -0.024408 -0.001076 
property 0.042917 0.023268 -0.036414 -0.000313 0.047952 -0.043498 -0.017072 -0.032655 -0.005508 -0.036339 
summer 0.010181 0.047209 0.021597 0.002559 0.046906 0.009593 -0.006668 -0.043993 0.019666 0.049809 
cooperation -0.001242 0.031819 -0.019977 -0.011830 -0.048062 -0.037193 0.004541 -0.030013 -0.008066 0.006783 
franklin -0.005219 -0.034425 -0.017191 0.046559 -0.022693 -0.029756 0.013626 -0.010051 0.003680 0.004308 
pierce -0.558239 -0.378626 -0.350820 -0.009523 0.037475 1.471148 1.064612 0.963501 0.781597 -0.579209 
center -0.597005 -0.432910 -0.348957 0.006726 0.022786 1.639535 1.222131 1.119871 0.923330 -0.674774 
concord -0.796692 -0.467610 -0.397176 -0.016854 0.063508 1.980431 1.447999 1.406646 1.105799 -0.841218 
new -0.839027 -0.519417 -0.513171 -0.027266 0.093537 2.189262 1.619499 1.575237 1.200966 -0.891007 
hampshire -0.457556 -0.311018 -0.280233 -0.064932 0.091529 1.096407 0.864605 0.817174 0.584462 -0.418952 
own -0.651540 -0.439671 -0.338204 -0.073628 0.024758 1.705463 1.245661 1.149689 0.918715 -0.712073 
editorial -0.804100 -0.558694 -0.479604 -0.009331 0.067120 2.073113 1.583618 1.455901 1.084735 -0.822627 
press -0.810553 -0.465812 -0.411838 -0.065241 0.075959 2.057389 1.535225 1.443383 1.116201 -0.801731 
announced -0.033072 0.021742 -0.046484 0.033220 0.009268 0.021187 -0.010150 -0.046974 0.039987 0.003932 
2013 -0.044031 -0.030586 0.048148 -0.022209 0.003436 0.002696 0.047812 -0.024425 0.008813 -0.001814 
consist -0.021957 -0.044902 -0.026337 0.026195 0.002902 -0.000829 0.024548 -0.017964 0.011453 0.015608 
200 0.013031 -0.013979 0.017758 0.037221 0.015674 -0.016536 -0.039120 0.021822 0.034039 0.044676 
chosen 0.004880 -0.047777 -0.005310 -0.035030 0.038821 0.036238 0.049188 -0.035341 -0.023233 0.006679 
annually -0.025903 -0.010945 -0.042221 0.021358 -0.029022 0.008470 0.045920 -0.036913 -0.033606 0.018217 
work 0.030252 0.039680 0.011908 0.038609 0.024838 -0.016051 -0.015918 0.014958 -0.031259 -0.046294 
towards -0.015521 0.017577 0.026022 0.031764 0.039661 0.041777 -0.014255 0.025935 0.001190 0.007872 
one-year -0.038028 -0.030968 0.045630 -0.038826 -0.006235 0.018867 -0.025458 -0.028004 0.045187 -0.041747 
’ 0.014490 0.035649 0.005301 -0.004997 0.017035 -0.027553 -0.011832 -0.038072 -0.041260 0.027702 
s 0.032852 0.016841 0.041168 -0.028273 0.003415 0.042555 -0.009119 -0.000166 -0.011081 0.046883 
relations -0.040558 0.032335 0.003427 -0.037364 0.023413 0.014543 -0.013998 0.047627 -0.015643 0.016771 
& 0.000705 -0.015331 -0.031165 0.034331 0.036600 -0.018425 0.028412 -0.012465 0.007748 -0.028844 
business 0.039648 0.021696 -0.046786 0.011226 0.004108 0.007127 0.037057 -0.015404 0.048352 0.039140 
live 0.048343 -0.000920 0.023944 0.038048 0.001132 -0.012511 0.007446 0.049162 0.034488 0.007637 
campus 0.000421 0.042796 0.012473 0.042336 0.029431 0.014262 0.024149 -0.000603 0.046039 -0.016127 
residential -0.016422 0.011635 0.026807 -0.003059 0.029825 0.036861 -0.026703 0.023778 0.026950 -0.042113 
being 0.012073 -0.040303 -0.035983 -0.017473 -0.005304 0.025011 -0.044913 0.043593 -0.002271 -0.034969 
built 0.039224 -0.001103 0.022736 -0.049928 -0.019510 0.031252 -0.003723 -0.024556 -0.032053 0.048470 
specifically -0.030084 -0.038539 0.015659 -0.016637 0.020215 -0.046565 -0.037314 -0.006255 0.048737 0.021678 
45 -0.026907 -0.037572 -0.017957 -0.038496 0.035941 -0.002776 -0.028302 -0.006776 -0.034708 0.030946 
participants -0.005737 -0.037849 0.000211 0.021407 -0.048700 0.038597 0.004758 -0.048582 -0.030627 0.017876 
come -0.032004 0.028792 0.000043 0.020299 0.003989 -0.013658 0.019873 -0.008821 -0.048203 -0.018120 
u.s. 0.030426 0.000829 -0.024515 -0.001781 -0.041736 0.044560 -0.035886 0.043172 -0.045050 0.042686 
20 0.031747 0.049550 -0.002954 0.040520 0.017447 -0.024834 -0.013885 0.008372 -0.014725 0.002834 
rest 0.048718 0.041557 0.024295 0.040364 0.036420 -0.039613 0.048569 0.020570 0.025781 0.010173 
